digraph Tree {
node [shape=box, fontname="helvetica"] ;
edge [fontname="helvetica"] ;
0 [label="Sex=female <= 0.5\nentropy = 0.831\nsamples = 981\nvalue = [723, 258]"] ;
1 [label="Pclass=1 <= 0.5\nentropy = 0.564\nsamples = 627\nvalue = [544, 83]"] ;
0 -> 1 [labeldistance=2.5, labelangle=45, headlabel="True"] ;
2 [label="Age=0 <= 0.5\nentropy = 0.457\nsamples = 489\nvalue = [442, 47]"] ;
1 -> 2 ;
3 [label="Age=1 <= 0.5\nentropy = 0.398\nsamples = 469\nvalue = [432, 37]"] ;
2 -> 3 ;
4 [label="Pclass=3 <= 0.5\nentropy = 0.378\nsamples = 436\nvalue = [404, 32]"] ;
3 -> 4 ;
5 [label="Age=3 <= 0.5\nentropy = 0.292\nsamples = 117\nvalue = [111, 6]"] ;
4 -> 5 ;
6 [label="Age=4 <= 0.5\nentropy = 0.256\nsamples = 93\nvalue = [89, 4]"] ;
5 -> 6 ;
7 [label="entropy = 0.26\nsamples = 91\nvalue = [87, 4]"] ;
6 -> 7 ;
8 [label="entropy = 0.0\nsamples = 2\nvalue = [2, 0]"] ;
6 -> 8 ;
9 [label="entropy = 0.414\nsamples = 24\nvalue = [22, 2]"] ;
5 -> 9 ;
10 [label="Age=2 <= 0.5\nentropy = 0.407\nsamples = 319\nvalue = [293, 26]"] ;
4 -> 10 ;
11 [label="Age=3 <= 0.5\nentropy = 0.258\nsamples = 23\nvalue = [22, 1]"] ;
10 -> 11 ;
12 [label="entropy = 0.0\nsamples = 2\nvalue = [2, 0]"] ;
11 -> 12 ;
13 [label="entropy = 0.276\nsamples = 21\nvalue = [20, 1]"] ;
11 -> 13 ;
14 [label="entropy = 0.418\nsamples = 296\nvalue = [271, 25]"] ;
10 -> 14 ;
15 [label="Pclass=2 <= 0.5\nentropy = 0.614\nsamples = 33\nvalue = [28, 5]"] ;
3 -> 15 ;
16 [label="entropy = 0.567\nsamples = 30\nvalue = [26, 4]"] ;
15 -> 16 ;
17 [label="entropy = 0.918\nsamples = 3\nvalue = [2, 1]"] ;
15 -> 17 ;
18 [label="Pclass=3 <= 0.5\nentropy = 1.0\nsamples = 20\nvalue = [10, 10]"] ;
2 -> 18 ;
19 [label="entropy = 0.592\nsamples = 7\nvalue = [1, 6]"] ;
18 -> 19 ;
20 [label="entropy = 0.89\nsamples = 13\nvalue = [9, 4]"] ;
18 -> 20 ;
21 [label="Age=3 <= 0.5\nentropy = 0.828\nsamples = 138\nvalue = [102, 36]"] ;
1 -> 21 ;
22 [label="Age=0 <= 0.5\nentropy = 0.904\nsamples = 75\nvalue = [51, 24]"] ;
21 -> 22 ;
23 [label="Age=1 <= 0.5\nentropy = 0.888\nsamples = 72\nvalue = [50, 22]"] ;
22 -> 23 ;
24 [label="Age=2 <= 0.5\nentropy = 0.869\nsamples = 69\nvalue = [49, 20]"] ;
23 -> 24 ;
25 [label="entropy = 0.722\nsamples = 5\nvalue = [4, 1]"] ;
24 -> 25 ;
26 [label="entropy = 0.877\nsamples = 64\nvalue = [45, 19]"] ;
24 -> 26 ;
27 [label="entropy = 0.918\nsamples = 3\nvalue = [1, 2]"] ;
23 -> 27 ;
28 [label="entropy = 0.918\nsamples = 3\nvalue = [1, 2]"] ;
22 -> 28 ;
29 [label="entropy = 0.702\nsamples = 63\nvalue = [51, 12]"] ;
21 -> 29 ;
30 [label="Pclass=3 <= 0.5\nentropy = 1.0\nsamples = 354\nvalue = [179, 175]"] ;
0 -> 30 [labeldistance=2.5, labelangle=-45, headlabel="False"] ;
31 [label="Age=3 <= 0.5\nentropy = 0.956\nsamples = 196\nvalue = [74, 122]"] ;
30 -> 31 ;
32 [label="Age=4 <= 0.5\nentropy = 0.931\nsamples = 147\nvalue = [51, 96]"] ;
31 -> 32 ;
33 [label="Pclass=2 <= 0.5\nentropy = 0.927\nsamples = 146\nvalue = [50, 96]"] ;
32 -> 33 ;
34 [label="Age=1 <= 0.5\nentropy = 0.873\nsamples = 75\nvalue = [22, 53]"] ;
33 -> 34 ;
35 [label="Age=0 <= 0.5\nentropy = 0.903\nsamples = 69\nvalue = [22, 47]"] ;
34 -> 35 ;
36 [label="entropy = 0.892\nsamples = 68\nvalue = [21, 47]"] ;
35 -> 36 ;
37 [label="entropy = 0.0\nsamples = 1\nvalue = [1, 0]"] ;
35 -> 37 ;
38 [label="entropy = 0.0\nsamples = 6\nvalue = [0, 6]"] ;
34 -> 38 ;
39 [label="Age=1 <= 0.5\nentropy = 0.968\nsamples = 71\nvalue = [28, 43]"] ;
33 -> 39 ;
40 [label="Age=0 <= 0.5\nentropy = 0.954\nsamples = 64\nvalue = [24, 40]"] ;
39 -> 40 ;
41 [label="entropy = 0.967\nsamples = 56\nvalue = [22, 34]"] ;
40 -> 41 ;
42 [label="entropy = 0.811\nsamples = 8\nvalue = [2, 6]"] ;
40 -> 42 ;
43 [label="entropy = 0.985\nsamples = 7\nvalue = [4, 3]"] ;
39 -> 43 ;
44 [label="entropy = 0.0\nsamples = 1\nvalue = [1, 0]"] ;
32 -> 44 ;
45 [label="Pclass=1 <= 0.5\nentropy = 0.997\nsamples = 49\nvalue = [23, 26]"] ;
31 -> 45 ;
46 [label="entropy = 0.811\nsamples = 12\nvalue = [3, 9]"] ;
45 -> 46 ;
47 [label="entropy = 0.995\nsamples = 37\nvalue = [20, 17]"] ;
45 -> 47 ;
48 [label="Age=0 <= 0.5\nentropy = 0.92\nsamples = 158\nvalue = [105, 53]"] ;
30 -> 48 ;
49 [label="Age=3 <= 0.5\nentropy = 0.89\nsamples = 140\nvalue = [97, 43]"] ;
48 -> 49 ;
50 [label="Age=2 <= 0.5\nentropy = 0.905\nsamples = 131\nvalue = [89, 42]"] ;
49 -> 50 ;
51 [label="entropy = 0.934\nsamples = 20\nvalue = [13, 7]"] ;
50 -> 51 ;
52 [label="entropy = 0.899\nsamples = 111\nvalue = [76, 35]"] ;
50 -> 52 ;
53 [label="entropy = 0.503\nsamples = 9\nvalue = [8, 1]"] ;
49 -> 53 ;
54 [label="entropy = 0.991\nsamples = 18\nvalue = [8, 10]"] ;
48 -> 54 ;
}